#    fbias_3
#
     0.01266
    0.005151
    -0.01576
   -0.006564
    -0.01638
   0.0003475
     0.01616
  -0.0004535
    -0.01092
     0.01249
     0.01549
   -0.008231
    0.002929
    -0.01179
   -0.004566
    0.006324
     0.01167
   -0.006629
    0.008669
    -0.01638
   -0.003684
    -0.01501
   -0.006019
    0.003173
    0.004813
    -0.04403
    0.002513
      -0.314
    -0.00957
     -0.0152
     0.01519
   -0.006078
    0.003262
    -0.01544
     0.01013
  -6.824e-05
  -0.0009144
     0.01339
    -0.03103
    -0.01017
     0.01136
    -0.01638
    -0.01638
    -0.06486
     0.01297
   -0.001703
    0.009489
    -0.01638
   -0.004404
    -0.02865
      0.0147
     0.01577
   -0.003732
     -0.0114
    -0.03971
   -0.008093
     0.01191
    -0.01638
    0.004251
    0.009811
    -0.01335
    -0.02907
    0.001664
   -0.007549
    0.007377
    -0.05473
    -0.01055
    0.004832
    -0.01638
    0.008171
  -0.0005692
    -0.01122
    -0.03865
    -0.01309
     0.01036
    -0.01638
   -0.004774
    -0.01075
    -0.01638
    -0.01581
    -0.01478
    0.004844
    -0.01638
    -0.01596
     0.01061
     0.01148
    -0.06165
     0.01518
    -0.01676
   -0.003394
     0.01127
    0.006348
  -0.0009933
     0.01029
   -0.007553
    -0.01352
     0.01249
     0.00634
     0.01278
    0.001422
   -0.007707
    -0.01638
    -0.01032
    -0.01565
    0.004192
      -0.137
    -0.04966
    0.006105
     0.01074
    0.003512
      0.0159
     -0.0587
    -0.01307
     0.01465
     0.01024
    -0.01638
  -0.0007894
    -0.07894
    0.008244
    0.005789
    -0.01323
    -0.01247
    -0.01301
     0.01198
     0.01339
    -0.01638
    -0.01466
    -0.01595
     0.01132
   -0.008711
   -0.009367
     0.01525
     0.01053
    -0.08254
   -0.004942
   -0.006777
    -0.01638
   -0.009754
   -0.008987
   -0.001929
    -0.02663
     0.01585
     0.01204
    0.004148
     0.01596
    -0.01595
   -0.008811
   -0.001828
   -0.008952
    0.006787
     0.01605
    -0.01521
    -0.02314
     -0.0124
    0.006293
    -0.01638
     0.01006
    -0.01307
     0.01437
     0.01461
   -0.003311
    -0.01585
    -0.01203
    -0.00245
    -0.01638
   -0.003645
    9.11e-05
    -0.01638
   -0.004228
    0.001501
       0.016
    -0.01066
     0.01395
    -0.01638
     0.01263
   -0.004295
     0.01414
     0.01557
     0.01543
    0.006234
     0.01514
    0.007302
     0.01477
    -0.01255
    -0.03531
    -0.01638
    -0.01638
   -0.005389
   -0.007991
   -0.004033
     -0.0154
    -0.01422
     0.01617
    -0.06078
     -0.0272
    -0.01456
    -0.01638
    0.007356
     0.01014
    -0.01638
    0.004469
    0.008222
    0.005681
   -0.004979
    -0.01638
    -0.01442
     0.00835
     0.01352
     0.00162
    -0.00642
    -0.01405
    0.008643
    -0.01164
    -0.01938
    0.008105
   -0.001083
     0.01173
    0.004328
    -0.01638
    -0.01587
    -0.05014
    0.001623
    0.003005
    -0.01638
     -0.1171
     0.01615
   -0.007377
    -0.03037
    -0.01606
    -0.01428
     -0.0171
    -0.01401
    -0.08375
   -0.001618
    0.003637
    0.006699
     0.01502
    -0.01638
    -0.01341
     0.01178
    -0.01444
     0.01188
   -0.003416
    -0.01638
    -0.01638
   -0.009028
     0.01505
   -0.009968
    -0.01215
   -0.005085
     0.01135
   0.0002823
    -0.03045
     -0.0422
    0.007512
   -0.008469
    -0.01238
     0.01615
   -0.006361
    0.009766
     -0.0136
    0.009715
    -0.02385
    -0.01371
    -0.01477
    0.009813
    -0.01465
    -0.01449
     0.01157
     -0.0424
    -0.07424
   -0.009075
    -0.01279
     0.01356
    -0.01192
   -0.002746
   -0.005159
      -0.015
     0.01236
   -0.007273
      -0.032
    -0.01638
    -0.01638
   -0.002165
    -0.01638
     0.01423
    -0.03124
     0.01235
    -0.05031
    -0.01261
    0.005931
    0.005859
    -0.01638
    -0.04424
    -0.01638
     0.01609
    -0.01638
    -0.01638
    -0.01266
    -0.01192
   -0.002322
    -0.02535
    -0.01391
    -0.01402
   -0.009721
    0.004302
    -0.01395
    0.003378
     0.00708
    -0.01591
    0.002825
   -0.007781
    -0.02071
    -0.06741
     0.01439
    0.004777
     0.01082
    0.009285
    -0.01112
    -0.03826
   -0.009128
    -0.01638
    -0.01638
    -0.01437
    -0.01049
    -0.01638
     0.01344
     0.01319
    -0.02565
     0.01615
     0.00844
    -0.02877
     0.01492
   -0.001784
    -0.03091
    0.005419
    -0.01638
    0.004143
   -0.003131
    -0.01638
    -0.01937
    -0.01638
      0.0153
    -0.01387
    -0.04794
     0.01443
    -0.01494
    0.005522
     0.01463
   -0.009965
     0.01505
     0.01192
    -0.00372
     0.01606
    -0.01638
    -0.09852
   -0.008412
    -0.02574
     -0.1137
     -0.1162
    -0.01413
     0.01433
      0.0145
    -0.01638
   -0.004115
     0.01617
    -0.01638
    -0.03782
    -0.01082
    0.003437
    -0.01638
   -0.004525
     0.01614
     0.01175
   -0.003978
    -0.00128
   -0.006909
   -0.006774
     -0.0158
   -0.008809
    -0.00299
    0.004947
      0.0116
   -0.007869
     0.01105
    -0.01047
     0.01282
     -0.1041
    0.001343
    -0.00352
    -0.07069
    -0.01302
     -0.0111
    -0.05651
      -0.107
     0.01312
     0.01102
    -0.01925
   -0.006371
     0.01522
    -0.02971
    -0.01006
    -0.01496
     0.01422
    -0.02274
    -0.01335
    -0.01536
    0.005035
    0.007852
    -0.01638
     0.01568
     0.01473
    -0.01638
     0.01565
     0.00301
    0.002986
    -0.01311
  -0.0002017
     -0.0107
   -0.001959
    -0.01554
    -0.01638
     0.01606
     0.01583
     0.01364
     0.01365
     0.01323
   -0.006109
     0.01063
    0.002544
    -0.01548
    -0.05909
     0.01598
   -0.009752
    -0.02539
    -0.01638
     0.01176
  -0.0009028
    -0.04737
    0.003187
    -0.00342
    -0.01261
    -0.01875
    0.007095
    -0.00639
     0.01565
    -0.01638
    0.005687
     0.01372
    0.009305
     0.01265
   -0.001604
   -0.001003
     0.01388
     0.01345
    0.002536
     0.01368
   -0.005857
    -0.01251
   -0.006274
     0.01592
     0.01476
    -0.01638
    0.007085
      -0.012
     0.01441
    -0.01638
   -0.008381
    -0.01638
     -0.0153
    -0.01545
    -0.01546
    0.004098
     0.01602
    -0.01173
    -0.01419
    -0.01638
    -0.01638
    -0.01494
     0.01329
      0.0148
     0.01185
    -0.01585
     0.01609
     0.01183
     0.01433
       0.011
   -0.001625
     0.01192
    -0.01638
    -0.01638
    0.006727
    -0.01638
      0.0141
     0.01239
  -0.0004947
    -0.01638
     0.01333
    0.008176
    0.001171
      0.0161
    -0.01364
    -0.01068
    0.006866
     0.01327
    -0.01158
    -0.01638
     0.01544
    -0.01128
    0.009266
    -0.01638
    -0.01545
     -0.0158
    0.008886
   -0.009874
    -0.02048
    0.001729
    0.004725
     0.01424
     0.01577
    -0.01598
    -0.01638
    -0.04709
     0.01548
    -0.01567
     0.01031
     -0.0736
    -0.01638
    -0.01638
      0.0123
     0.01074
   -0.008097
   -0.006394
   -0.003803
   -0.005487
     0.01564
    -0.01039
    -0.01291
     -0.1144
    -0.01043
   -0.006946
     0.01383
    -0.01299
    0.005567
     0.01614
    -0.01594
    -0.01568
    0.004271
    -0.03173
   -0.005484
     -0.1279
   -0.001821
    -0.01521
   0.0006103
    -0.01585
    -0.01638
    -0.02257
    -0.08348
   0.0002523
    0.002556
  -0.0004545
   -0.001347
     0.01008
   -0.003483
     0.01064
     0.01386
    -0.01157
   -0.009208
   -0.003672
      0.0141
     0.01256
   -0.008952
   -0.006053
    0.009168
     0.01055
    0.008251
   -0.007524
    -0.01638
    -0.03874
     0.01192
   -0.005857
    0.009443
     0.01574
    -0.01638
    -0.01721
    -0.01502
     -0.1502
     0.01487
     0.01492
   0.0003126
  -0.0006456
   -0.008873
    -0.02723
     0.01311
    0.001165
    -0.01137
     0.01153
    -0.01638
    -0.01271
    -0.02502
    -0.01638
    -0.09583
   -0.009329
     0.01144
   -0.005091
    -0.01582
      0.0131
   -0.004075
     0.01136
     0.01495
   -0.007818
   -0.002646
    -0.01638
     0.01255
   -0.001687
   -0.008141
    -0.01638
      -0.013
   -0.009476
    0.007152
    0.001562
    -0.01173
    0.006574
    -0.01547
    -0.07992
    -0.01531
     0.01435
      0.0135
    -0.01638
     -0.0148
     0.01432
    -0.01778
    0.001098
    -0.01638
    -0.01484
    0.009388
   -0.005446
     0.01497
    -0.02664
    0.004168
   -0.001182
    0.002771
    -0.01415
     0.01513
     0.01506
    -0.01272
    -0.06344
     0.01613
    -0.02953
    0.009894
    0.008592
     -0.1327
   -0.003082
    -0.01638
    -0.01638
    -0.01076
    0.007839
    0.007483
     0.01587
    -0.01596
    -0.01638
    -0.05282
     0.01437
   -0.005839
   -0.001805
     0.01455
   -0.003779
     -0.0158
    -0.01588
    -0.01638
     0.01614
    0.006159
    -0.01549
     0.01204
   -0.007044
    -0.01313
     0.01617
     0.01607
   -0.007846
      0.0156
    0.004551
    0.005191
   -0.001277
      0.0151
    -0.01455
    -0.02876
     0.01193
    -0.02454
    -0.03146
    -0.01638
    -0.01244
    -0.01218
    -0.01638
    -0.01303
     0.00662
    0.003817
     0.01603
    -0.01638
   -0.008939
     0.01454
    -0.01638
    0.004326
     -0.0263
     0.01317
    -0.01638
   -0.007384
   0.0007271
    -0.01294
    -0.01475
    -0.01065
     0.01156
  -0.0005268
     0.01607
   -0.008903
    0.005856
    -0.01638
     0.01476
    -0.01251
    0.008854
     0.01615
   -0.008865
   -0.008938
    -0.01542
   -0.006467
     0.00209
   -0.006035
    -0.01556
   -0.006198
    -0.03715
    -0.04874
   0.0003747
    -0.01491
     -0.0281
   -0.008178
    0.007933
     0.01548
   0.0002501
  -0.0001836
   -0.006918
     0.00816
     -0.0132
    -0.00464
    -0.01563
    -0.01514
     0.01473
    -0.01638
   -0.004164
     0.01133
    -0.01491
    -0.01638
     -0.1241
    -0.01638
    -0.02844
   -0.002312
     0.01603
    -0.01353
     -0.1313
    -0.01462
    -0.01638
   -0.008027
    -0.03065
     0.01289
    0.004347
    -0.01638
     0.01224
    -0.03074
    -0.01638
    -0.02828
    -0.01638
  -0.0007728
     0.01613
   -0.004617
     0.01335
   -0.005094
     0.01175
    -0.06221
    0.003131
    0.006316
     -0.0119
    -0.01302
    -0.05507
     0.01582
     0.01148
    -0.01638
    -0.01638
    -0.01612
     0.01589
    -0.03777
    0.006641
    -0.01254
    -0.08856
    -0.01338
      0.0098
    -0.01497
   -0.001048
     0.01259
    -0.01281
    0.006014
    0.008564
   -0.009947
   -0.006156
    -0.01158
    0.009993
    -0.01638
     0.01428
   -0.009704
    -0.00272
    -0.01369
    -0.01198
    -0.01221
    -0.01446
    0.005276
   -0.005097
   -0.002076
    -0.01638
    -0.03375
     -0.0158
    0.002479
    -0.01046
    -0.01638
    -0.01054
  -0.0003955
   0.0002775
    -0.01616
     -0.0157
     0.01576
     0.01587
     0.01536
    -0.01599
    -0.01458
    -0.01595
   -0.007619
   -0.002517
    -0.04404
    0.008288
     -0.0158
    -0.01638
    -0.01481
    0.005962
    -0.01442
     0.00991
    -0.01258
    -0.01437
   -0.003167
     0.01323
    -0.01597
   -0.003011
     0.01122
    0.001369
     0.01609
    0.002171
   0.0008241
    -0.01356
     0.01164
    -0.04695
  -0.0001711
    0.009078
    -0.01083
   -0.002247
     0.01026
     0.01615
    -0.03373
    -0.01596
    -0.00662
    -0.01264
     0.01584
     0.01589
    -0.01638
     0.01034
    -0.01638
   -0.007495
     0.01515
    -0.01471
     0.01562
    -0.00291
     0.01602
  -0.0002552
    -0.01468
     0.01554
     0.01018
      -0.005
     0.01406
    0.009602
    0.009476
       0.016
    -0.05061
     0.01495
   1.129e-05
   -0.008639
     0.01584
    -0.01392
    -0.01237
   -0.008948
    -0.02579
   -0.005563
   0.0004225
   -0.007171
     0.01585
    -0.01385
    -0.03037
    -0.01638
    -0.01599
   -0.001497
   -0.009929
    3.05e-05
    0.003478
    -0.01487
   -0.003214
      0.0156
    -0.01268
    0.003023
   -0.001032
    0.002152
    -0.01026
     0.01213
     0.01614
   -0.005625
    -0.05627
   -0.009506
    -0.01638
     0.01531
   -0.003396
     0.01402
    -0.04262
     0.01607
   -0.008169
   -0.007706
       0.015
    0.007869
    -0.01538
     0.01585
    -0.01124
     0.01481
     0.01564
    -0.05036
     0.01022
    -0.01638
   -0.005145
    0.004028
    -0.01337
     -0.1261
    -0.01597
   -0.005323
     0.01224
     0.01411
    -0.01638
     0.01011
    -0.01208
     0.01238
     0.01114
    0.001987
    0.002009
    -0.01502
     0.01617
   -0.007577
     0.01002
    -0.01071
    -0.01425
    -0.02604
    0.009175
    -0.01654
    -0.01449
   -0.001965
    -0.01274
    -0.01419
   -0.004022
     0.01583
    0.001631
    0.008728
    -0.01166
  -0.0004044
    -0.01638
    -0.01638
     0.01528
   -0.005967
    -0.02661
   -0.009031
    -0.04685
    -0.01123
    0.004407
     0.01146
    -0.01513
     0.01278
    -0.01553
    0.009832
    0.007265
    0.009779
    -0.01449
     0.00992
     0.01591
   -0.002902
    0.002588
    0.003744
    -0.01029
    0.003144
    -0.01638
     0.01526
    -0.01466
     -0.0771
  -0.0001699
     0.01284
   -0.006635
    0.004975
   -0.007758
    -0.03142
      0.0161
     0.01608
    -0.01118
    0.004253
   -0.008999
    -0.01486
    0.005446
   -0.008374
     0.01608
     -0.0243
      0.0147
     0.01051
    -0.01638
    -0.01191
   -0.004111
    -0.01638
   -0.006175
    -0.01552
    -0.01597
   -0.007447
      0.0121
    0.002857
      0.0154
    -0.01604
     0.01499
     0.01578
    -0.01148
     0.01279
     0.01457
    -0.01585
    -0.02644
    -0.01638
     0.01568
     0.01501
   -0.005632
    -0.01893
   -0.001679
    -0.01638
    -0.00472
    -0.08138
     0.01539
     0.01248
    0.004406
    0.007145
    -0.06966
    -0.01175
    0.004187
     -0.0132
    0.001901
     -0.0123
    -0.01638
    0.007908
     -0.0142
   -0.009511
    -0.01462
    -0.01559
     0.01584
     0.01368
    -0.01286
    -0.01638
    -0.01883
   -0.005576
      -0.161
    -0.02019
    -0.01526
     0.01305
    -0.01067
    -0.01638
    -0.01529
   -0.005074
     0.01046
    0.008061
      0.0145
     0.01477
  -0.0006139
    -0.01377
      0.0136
     0.01584
    0.001851
   -0.004218
     0.01301
     0.01461
    -0.01535
   0.0003203
    -0.01638
    -0.02596
    -0.01373
     0.01379
     0.01332
    -0.03221
     0.01436
    -0.01829
    0.007102
    -0.04969
    -0.05352
   -0.007893
    -0.02509
   -0.007277
    0.009618
    0.003435
      0.0159
     0.01588
    -0.08194
     0.01185
    -0.07864
   -0.008692
    -0.01925
   0.0005904
    -0.05346
     0.01617
     -0.0128
     0.01119
     0.01037
     0.01186
    -0.01574
     0.01237
    -0.01419
    -0.02315
    0.009861
    -0.02128
   -0.006478
     0.01119
     0.01316
     0.01617
      0.0156
     0.01602
   -0.004158
     0.01564
     0.01617
    -0.01517
    -0.01337
    -0.00793
   -0.009501
    0.006384
     0.01547
    -0.01004
     0.01069
     -0.1145
    -0.02851
   -0.002207
     0.00318
    -0.01392
    -0.01555
   0.0003131
    0.006021
     0.01469
   -0.003025
   -0.008107
    -0.01595
    -0.07642
   -0.003398
     0.01382
    -0.01427
    -0.00291
     0.01204
    -0.01259
     -0.1188
     -0.1276
    0.003024
     -0.1737
     -0.1216
     0.01614
     0.01154
     -0.0155
    0.005489
    -0.01518
     0.01026
    -0.01007
    0.008124
     0.01337
     0.01062
    -0.01638
    0.007012
    -0.05178
    0.008206
    -0.01638
    -0.01638
   -0.008496
    -0.01638
    -0.05401
    0.001018
    -0.01394
    -0.01638
    0.008061
    -0.01314
    -0.00359
    -0.03461
    -0.01397
   -0.004744
    -0.01211
    -0.01638
     0.01573
     0.01587
   -0.008851
   -0.005231
     0.01608
    -0.01638
    -0.01638
    0.007411
     0.01231
    0.005103
    0.004132
   -0.003602
     -0.0123
    -0.01095
    0.009216
    0.006803
    0.008793
   -0.002907
    0.004429
  -0.0005189
    -0.01638
    -0.01398
     0.01405
    -0.01638
    -0.01584
      0.0145
   -0.007349
     0.01046
     0.01403
    -0.01638
   -0.008124
     -0.0127
   -0.007714
    -0.01536
     -0.0136
    0.009496
     0.00369
    -0.01491
     0.01562
     0.01589
     0.01586
      0.0148
    0.003708
    -0.01307
     -0.0338
     0.01245
    0.009939
    -0.01649
     0.01564
      0.0114
     0.01611
    -0.01638
    -0.02357
    -0.01108
     0.01175
    -0.08342
   -0.002127
     0.01371
    -0.01114
    -0.01057
    -0.01638
     0.00538
    -0.01392
   -0.007591
     0.01609
     -0.0575
    -0.01449
  -0.0004406
    0.008637
    -0.01638
    -0.05562
    -0.01526
     0.01321
    -0.01638
     0.01592
   -0.005269
  -0.0008069
    -0.01541
    -0.01638
  -0.0005942
   -0.002458
    -0.01638
    -0.01243
    -0.01743
  -0.0009407
     0.01498
   -0.002793
    0.002161
    -0.01638
    -0.01731
  -3.819e-05
    -0.01488
    -0.02461
       0.013
   -0.006819
    -0.01393
   -0.009411
   -0.008706
   -0.008192
    -0.02197
    -0.01475
     0.01321
   -0.008734
    0.005297
   0.0003127
    -0.01284
    0.001288
     0.01581
     0.01223
     0.01611
   0.0008527
   0.0006367
    0.004723
   -0.006344
     0.01539
    -0.01071
    -0.01638
    -0.01046
   7.092e-05
   -0.008257
    -0.01575
     -0.0012
      0.0119
    -0.01469
   -0.009216
     0.01314
    0.006906
    -0.01417
   -0.008977
    0.002823
    -0.01291
    -0.01562
   -0.006406
    -0.01638
     0.01602
     0.01056
    0.006945
   -0.006389
     0.01475
   -0.004547
   -0.008632
    0.001557
    0.003743
     -0.0354
    -0.01576
   -0.005424
     0.01094
     0.00635
    -0.01638
     0.01546
     -0.1214
   -0.003392
     0.01572
    0.005579
   -0.001342
    -0.01512
    -0.01364
   0.0004612
     0.01419
  -0.0001033
     0.01489
    -0.01176
   -0.005058
    -0.01638
     0.01575
     0.01377
    0.008205
    -0.01843
    -0.06472
      0.0105
   3.639e-05
    -0.01287
    -0.04026
   -0.009666
     -0.0199
     0.01536
     0.01608
    0.001241
     0.01206
     0.01617
    -0.01638
   -0.007545
     0.01599
     0.01322
    -0.03231
     0.00547
    -0.01055
   -0.008246
    -0.01547
     -0.0224
    -0.01563
     0.01277
    -0.01387
     -0.0575
   -0.004422
    0.006289
     0.01507
   -0.009878
   -0.002796
    -0.01638
    0.002185
     0.01608
    -0.04733
     -0.1002
     0.01318
    -0.08768
     0.01517
    0.007387
     0.01607
    -0.01427
    -0.01638
    -0.01638
       0.015
     0.01612
    -0.01638
    0.007783
    -0.00861
   -0.009531
    -0.01512
    -0.01016
    -0.01638
     0.01423
    -0.01638
     0.01364
    -0.01638
     0.01139
    -0.03251
   -0.009186
     -0.0133
    -0.01638
   -0.001167
      0.0155
    0.004669
   -0.005355
    -0.01336
     0.01541
   -0.007996
     0.01317
    -0.02589
    0.004018
    -0.01638
    -0.01638
     0.01152
    -0.05068
    0.007525
    -0.01341
    -0.06465
    0.006553
    -0.01533
    -0.00359
     -0.0135
    -0.02542
   -0.002252
    -0.04893
     0.01265
     0.01105
    0.005497
    -0.01531
     0.01341
     0.00937
     0.01577
     0.01592
     0.01478
    -0.01052
   9.749e-08
   -0.004869
    -0.01042
    -0.06709
   -0.003583
     0.01454
   -0.003847
    0.003269
   -0.006491
    -0.02374
   0.0006153
   -0.000697
  -0.0009552
    -0.02879
    0.004481
   -0.008871
    -0.01216
     0.01351
    -0.01415
     0.01013
    -0.01638
   -0.005472
     0.01609
     0.01091
     0.01617
    -0.09147
    0.006401
   -0.005019
    -0.01638
     0.01252
    -0.04245
    -0.09272
     0.01498
    0.009975
     -0.0151
     0.01552
     0.00269
     -0.0084
    0.003477
     0.01163
     0.01607
      0.0105
     0.01584
    -0.01554
    -0.01579
    0.001913
    -0.01416
    -0.01638
   -0.002103
    -0.04705
   -0.009302
     0.00218
      0.0142
    -0.01638
     0.01486
   0.0007948
   -0.007039
    -0.01554
   -0.002021
   -0.002577
    -0.01638
     0.01454
     0.01531
    -0.01638
     0.01035
       0.013
    -0.06408
    0.008354
    0.001546
   -0.006339
   -0.008842
     0.01537
     0.01068
     0.00626
   -0.002634
    -0.01638
    0.008961
    -0.01243
   -0.006018
   -0.008682
    -0.01638
     0.01536
      0.0156
    -0.01367
    -0.01561
    -0.01551
    -0.01638
    -0.01287
     0.01239
    -0.01556
    0.003317
   -0.006732
     0.01353
   -0.008912
   0.0004241
    -0.09438
    -0.01574
    -0.01638
    -0.05992
    0.003684
   -0.003031
    -0.01638
     0.01247
    -0.02341
   -0.005736
    0.009208
   -0.007915
    -0.01638
     -0.0158
    -0.01569
    -0.01638
    -0.04496
   -0.008758
   0.0002283
   -0.001843
    -0.00164
     0.01608
    0.007021
    -0.01092
     -0.0109
     0.01296
    -0.01461
    -0.06143
    -0.03042
     0.01616
    -0.01638
    -0.01585
    -0.01638
    0.006111
   -0.008999
     0.01515
   -0.005306
    0.001125
    0.006647
     0.01421
     0.00535
    -0.01131
    -0.01515
    -0.01505
    0.008373
   -0.009545
     0.01053
      0.0131
     0.01609
    -0.01638
    -0.01586
    -0.06333
    -0.01163
    0.005611
    -0.03879
     0.00579
    -0.01581
     0.01053
    -0.01231
   -0.006965
     0.01289
     0.01165
     0.01027
   -0.007439
     0.01343
     0.01542
   -0.008961
    -0.01203
    -0.01298
    0.008917
   -0.004176
    -0.01472
    -0.01507
    0.005704
   -0.005149
     0.01479
    -0.01392
     0.01575
     0.01468
   -0.003666
    -0.01125
   -0.008233
     0.01312
    -0.01424
    -0.01638
   -0.008671
    -0.01222
     0.01607
     0.01113
   -0.008822
     0.01409
   -0.003661
   -0.002387
     -0.1085
    0.009832
    0.007312
    -0.01396
       0.015
  -0.0003649
   -0.006555
   -0.008298
     0.01375
    0.008331
    -0.01537
    -0.01638
   -0.001407
    -0.01638
    -0.01526
    -0.01536
     0.01149
    -0.01341
    0.006655
     -0.1091
    -0.01417
   -0.005779
    -0.01638
    0.001345
    -0.01463
    -0.01072
    -0.01565
    -0.01467
    -0.01482
    -0.01638
    -0.01537
    -0.01638
    -0.01638
    -0.01474
     0.01211
    -0.01564
    -0.01638
    0.004303
   -0.002909
     0.01573
     0.01615
    -0.01638
   -0.006259
    0.006183
     0.00937
     0.01561
    -0.01293
    -0.01478
   -0.002093
   -0.001305
    -0.01423
     0.01603
     -0.1339
   0.0007142
    -0.01161
   0.0005597
     0.01399
    -0.01519
      0.0137
     0.01595
    0.008155
    -0.01184
   -0.009485
   -0.009255
    -0.01597
   -0.007249
    0.002034
     0.01552
    0.004047
    0.003907
   -0.001589
    -0.01638
     0.01526
    -0.07179
   -0.007241
    -0.01638
    -0.01092
  -0.0002602
   -0.003033
    -0.01184
    -0.01179
   -0.002085
    0.009032
    -0.01555
    -0.01456
     0.01502
     -0.1215
     0.01546
   -0.005167
   -0.008683
    0.002455
    0.007913
     0.01573
  -0.0002183
    -0.04387
    -0.01404
   -0.001936
    -0.01061
    -0.01939
    -0.01638
     0.01552
     -0.0417
     0.01047
   -0.008247
    -0.01345
     0.01512
      0.0149
   -0.008019
    0.005001
     0.01339
    -0.01638
    -0.01682
     0.01294
   -0.002234
     0.01119
    -0.01638
   -0.009768
   -0.006235
   -0.009231
   -0.001976
     0.01557
    -0.00312
     0.01558
    -0.01975
   -0.002899
    -0.01638
     0.01074
     0.01613
    0.005766
    -0.01412
    0.002499
   -0.003626
    -0.01044
    -0.01638
    0.003072
    0.009601
    0.001942
    0.005153
     0.01569
     -0.1208
    0.006623
    0.009952
    -0.01494
   0.0005213
    -0.01593
   -0.008436
     0.01552
    -0.04915
    -0.01388
    -0.01293
      0.0015
     0.01617
     -0.1146
      -0.226
      0.0108
     0.01297
    0.005723
     0.01596
     0.01472
   0.0008126
    0.005123
    0.008191
    -0.01497
    -0.01506
   -0.006908
    0.006509
    0.009617
    -0.06562
     0.01434
    -0.03935
    0.001931
   -0.003602
    -0.05332
   -0.006829
    0.004431
     0.01577
    -0.01638
     -0.1189
    0.008927
    -0.01638
     0.01614
    -0.01457
    0.002167
    -0.01929
     0.01452
    -0.01566
    -0.01638
    0.005736
    0.006309
     0.01117
    0.009072
    0.001858
    0.004778
    -0.01249
    -0.01365
    -0.01403
    0.009003
    0.007761
       0.015
    -0.01638
     0.01484
    -0.01506
   0.0002118
     0.01482
    0.005118
     0.01596
    -0.01638
   -0.007473
      0.0126
    -0.01432
     0.01558
    -0.01835
   -0.007135
     -0.1209
    -0.01498
   -0.002386
   -0.009611
     -0.0122
    -0.01638
    -0.02393
    0.004705
    -0.01388
      -0.125
    0.003282
    0.006231
    -0.01481
   -0.008802
     0.00404
   0.0009205
     0.01149
    0.005301
     0.01428
     0.01525
    0.004429
   -0.003286
  -0.0003871
     0.01552
    -0.01426
    -0.01339
    0.008168
    -0.01236
     0.01616
   -0.004504
     0.00534
    -0.01437
     0.01554
    -0.01396
    -0.00228
    -0.01638
    -0.08627
     0.01617
     0.01044
    -0.01556
    0.005809
     0.01494
    -0.04578
   -0.007654
    0.008136
    -0.01291
     0.01615
    -0.01219
    -0.03446
    -0.01638
     0.01228
    -0.01364
     0.01612
    0.008537
     0.01592
    -0.02082
    -0.01638
   -0.001433
    -0.01282
      0.0041
     0.01476
   -0.005826
     0.01483
    0.002838
     0.01606
    -0.01598
     0.01489
     0.01193
   -0.007803
    -0.01412
   -0.007564
     0.01129
    -0.01638
   -0.008906
    -0.01324
     0.01483
     0.01616
     0.01487
    -0.01638
     0.01419
     0.01462
    -0.01638
      -0.014
   -0.007457
    -0.01638
     0.01617
   -0.007093
   -0.001209
     0.01617
    -0.01576
    -0.01575
    0.008396
    0.003307
   -0.001712
      0.0154
    -0.01638
     0.01516
     0.01486
     0.01612
    -0.01371
    -0.01525
    -0.00124
     0.01236
     0.01542
    -0.02409
     0.01126
    -0.01349
   -0.008577
   0.0004345
   -0.005646
    -0.01291
    -0.01496
    -0.01638
     0.01358
    -0.01638
   -0.009725
    -0.01107
    0.000529
    -0.01561
    -0.01226
    -0.01492
     0.01378
    -0.01258
    0.004094
    -0.01638
     0.01616
    0.006533
    -0.01638
    -0.04765
    -0.01462
    -0.01534
    0.007311
   0.0003842
    -0.01599
     0.01089
    0.007642
    -0.01334
      0.0161
     0.01592
    -0.01086
     0.01598
    0.003366
     0.01209
    0.004468
    -0.01566
     0.01245
     0.01461
     -0.0107
     0.01049
   -0.003552
    -0.01299
   -0.009947
    -0.01638
    0.006044
     0.01593
    0.006229
   -0.004122
   0.0006467
     0.01171
    -0.03716
    -0.00398
     0.01533
   -0.007574
    -0.01338
    0.004981
     0.01295
     0.01396
    -0.02029
     0.01553
    -0.01347
     0.01578
     0.01398
   -0.002353
     0.01242
     0.01617
    -0.01569
   0.0009696
  -0.0008284
     0.01615
    0.002521
     0.01616
    -0.01638
    0.007931
    0.006954
      0.0141
    -0.01638
   -0.002675
    0.008048
     0.01167
      0.0142
     0.01577
     0.01591
     0.01548
    -0.01638
     0.01251
    -0.01562
    0.009701
     0.01474
    -0.01335
    -0.01638
    0.006966
     0.01337
    -0.01638
    -0.01638
     0.01282
    -0.05222
     0.01617
   -0.007092
     0.01519
    0.001277
   -0.004718
     0.01454
    -0.01403
   -0.006849
    -0.01638
     0.01113
    0.004425
    0.006795
    -0.05028
     0.01178
     0.01607
     0.01517
    -0.01434
    0.005332
     0.01431
    -0.01349
    0.003312
     -0.0118
   -0.003623
    -0.01025
     0.01257
  -0.0003082
    -0.02102
     0.01318
     0.01611
    -0.01638
     0.01617
    -0.01326
    -0.01482
    -0.01466
   -0.003118
    0.005759
    -0.01638
    -0.01475
    0.007486
    -0.01063
     -0.0102
   -0.009461
    -0.01285
   -0.009438
    -0.01638
     0.01185
    -0.08042
    -0.01531
    -0.03549
     0.01209
   0.0008631
   -0.002214
     0.01257
   -0.006769
   -0.009218
     -0.1309
    -0.02253
    0.002966
    -0.01008
    0.004835
   -0.006407
    -0.01638
    -0.01268
    -0.02052
    -0.01931
   -0.008595
    0.002147
    -0.01515
    -0.01638
     0.01607
    -0.01399
    0.007528
     0.01214
     0.01144
    -0.01131
    -0.01312
      -0.009
     0.01533
   -0.003669
   -0.007545
    -0.01097
    -0.01638
   0.0006077
     0.00922
    -0.01638
   -0.008516
    -0.08404
   -0.007371
     0.01617
    0.008924
    -0.01218
    -0.01638
   -0.009383
     0.01409
   -0.006415
     -0.1145
   0.0006102
     0.01315
   -0.003869
   -0.008864
    -0.04464
    -0.01272
     0.01617
     0.01494
     0.01355
    -0.03152
    -0.02121
    -0.01563
   -0.005365
    0.006036
    -0.01455
    -0.03946
   -0.006427
     0.01546
     0.01336
    -0.04913
     0.01099
    0.007863
    -0.01379
     0.01442
    0.001476
   -0.006103
    -0.01638
    -0.00338
    0.007079
   4.394e-05
     0.01091
     -0.0739
     0.01465
    0.008439
     0.01612
    0.005134
     0.01616
    0.003571
    0.009594
   -0.008491
    0.004823
    -0.01638
    0.002954
     0.01614
     0.01535
    0.001622
    -0.01638
     0.01421
    -0.01543
     -0.0149
   -0.007485
    0.009706
    -0.01638
    -0.00382
     0.01578
    -0.01416
     0.01589
   -0.006568
     0.01613
     0.01569
    -0.01537
    0.003889
    -0.01638
    0.004981
     -0.1112
     -0.0157
    -0.01209
    0.007902
    -0.01559
   -0.003308
     0.01282
   -0.003483
    0.007425
    0.008615
   -0.008785
   -0.002051
   -0.001913
    0.002532
     -0.0147
   -0.009546
      0.0129
    -0.01638
    -0.01517
     0.01578
    0.002244
     0.01084
     0.01615
    0.005778
    -0.01022
    -0.01236
    -0.03496
     0.01137
   -0.002154
    0.004828
    0.007428
     -0.1232
    -0.01992
    0.001117
    -0.01408
    -0.01638
   -0.005831
     0.01545
   -0.001202
     0.01302
    -0.01875
    0.001831
     0.01453
   0.0005638
     0.01024
    -0.01453
     0.01616
    -0.01638
    0.005744
    -0.01134
     0.01607
    -0.01151
     -0.1067
     0.01612
     0.01328
    -0.01862
      0.0138
   -0.003028
      0.0158
     0.01565
     0.01596
    -0.01638
    -0.01638
    -0.01106
    0.004147
     0.01033
   -0.006295
     0.01435
     0.01277
      0.0161
    0.003391
   -0.009795
     -0.1074
    -0.01638
    -0.01638
    -0.01638
    -0.01102
    -0.01638
     0.01192
    -0.01539
   -0.001994
     -0.1119
    -0.01423
     0.01589
     0.01583
   -0.004691
     0.01569
    -0.01638
    -0.01638
   -0.007442
     0.01319
    -0.01191
    -0.01389
    -0.05164
    -0.02393
    -0.01304
    0.006457
    0.000346
    -0.01594
   -0.009726
    -0.01397
     -0.0575
    0.005174
    -0.01359
   -0.002908
   -0.005599
    -0.01638
    -0.01638
    0.006375
    -0.02635
    -0.01638
     0.00636
    -0.02874
     0.01307
     0.01444
   -0.004693
    -0.01585
     0.01604
    0.002434
    -0.01384
     0.01522
    -0.01638
     -0.0169
     0.01399
    -0.01638
    0.006731
    -0.01532
    0.003688
    0.003675
   -0.008838
   -0.003931
    0.009798
    -0.01631
    0.007816
      0.0159
     0.01387
     0.01576
     0.01232
    0.008572
     0.01419
    0.008309
     0.01567
    -0.01557
    -0.01345
    -0.01638
     -0.1023
     0.01446
    0.006411
    -0.01426
   -0.008734
     0.01617
    -0.01481
     -0.1573
     0.01354
     0.01246
     0.01574
     0.01539
   -0.008751
     0.01612
   -0.009998
    -0.01577
    -0.01247
    -0.01467
    0.005388
    0.007136
    -0.01477
     0.01616
    -0.01638
     0.01393
   -0.001834
    0.004728
    -0.01645
   -0.004491
     0.01074
    0.004724
     0.01088
     0.00372
   -0.002514
     -0.0339
    -0.01851
    0.006235
    0.009199
     0.01426
   -0.009315
    -0.01622
    -0.01333
     0.01053
    -0.01354
     0.01028
    0.009157
     0.01314
     -0.0133
    0.009709
    0.007328
     0.01448
    -0.01638
     0.01207
     0.01588
    -0.01638
   -0.005651
    -0.01638
     0.01364
    -0.01589
    -0.01231
    -0.01507
     0.01056
     0.01098
    0.001301
     0.01613
     0.01601
     0.01195
    -0.00152
   -0.007842
     0.01597
    -0.01586
     -0.0264
    -0.01327
     0.01548
    -0.01437
   -0.008408
    -0.01207
    0.005841
    -0.02142
    0.000579
   -0.003952
     0.01007
     0.01056
      0.0078
   -0.007564
      0.0136
    -0.02275
    -0.01638
    -0.01638
     0.01021
   -0.005768
   -0.004981
     0.01409
    0.006772
    -0.01357
     0.01246
      0.0157
    -0.07814
    -0.01638
     0.01223
    -0.01521
     -0.1472
    -0.06347
    -0.01638
    -0.01293
     0.01305
   -0.001827
    0.002439
    0.004694
   -0.005182
    -0.01284
    0.003033
   0.0008902
       0.016
   -0.002232
   -0.001758
   -0.009428
     0.01208
    -0.04002
     0.01537
    -0.01416
    -0.01356
    -0.02195
    0.002216
     0.01209
     0.01589
    0.002635
     0.01217
     0.01113
    0.005906
    -0.06524
    -0.01925
     0.01374
     0.01615
     0.01154
     0.01224
    -0.01524
    -0.01638
      0.0125
    -0.01105
    0.009533
    -0.01246
     0.01586
    -0.01638
    -0.01493
    -0.01334
    -0.01738
    -0.01581
    0.002107
    -0.01324
     0.01317
     -0.0347
    0.003029
   -0.005352
   -0.004125
    0.002579
   -0.006833
    -0.01638
     0.01403
    0.001353
    0.005711
      0.0155
    -0.01638
     -0.0176
     0.01243
    0.008883
   -0.002067
    -0.02161
    -0.01638
     0.01137
     0.01284
    -0.00882
   -0.009427
     0.01041
    -0.01638
     0.01604
    -0.01514
    -0.01404
    -0.06598
    -0.01047
    -0.01376
    0.005237
   -0.001055
  -0.0003395
     -0.1228
     0.01617
    -0.01312
     0.01091
     0.01526
     0.01532
    -0.01167
    -0.01057
   -0.009427
   -0.004128
     0.01615
     0.01299
  -0.0005697
    -0.01638
    -0.00429
     0.01596
    0.008415
     0.01076
     0.01207
    0.006841
   9.557e-05
     -0.0116
    -0.01638
     0.01516
     -0.1333
    -0.01316
     0.01015
   -0.009909
   -0.005756
   -0.006625
   -0.002534
     0.01617
    -0.02607
     -0.0186
   -0.008092
    0.008292
    0.004869
   -0.000351
    -0.01638
    0.001375
    -0.01638
     0.00778
   -0.005708
     0.01355
    0.001577
    -0.01113
    0.005874
     -0.1103
     0.01591
     -0.0776
     0.01583
    -0.01374
    0.008758
   -0.002552
     0.01615
     0.01262
     0.01497
     0.01597
    -0.01126
    -0.01576
     0.01611
    -0.01594
    -0.01444
    -0.01175
    0.003675
    -0.01338
     0.01601
    -0.01638
    -0.01638
    -0.01004
    -0.01271
    -0.01157
    0.005658
    -0.01638
   -0.002881
  -0.0008191
     -0.0404
    -0.01498
    -0.01017
    -0.01294
    -0.05206
    -0.01638
     0.01165
    -0.01577
     0.01617
     0.01473
    -0.01533
    0.009481
    -0.01471
    -0.01185
    -0.01638
     0.01284
   -0.001499
    -0.01638
    -0.01141
     0.01566
   -0.008616
     0.01094
    0.008653
    -0.01929
     0.01617
   -0.007684
   -0.003637
     0.01617
    -0.01638
    -0.01492
    -0.01638
     0.01129
    -0.01537
     0.01233
   -0.003553
    -0.01449
    0.009353
     0.01118
     0.01198
    0.002253
    -0.01519
  -0.0005871
    0.002185
    -0.01512
    -0.01455
     0.01617
     0.00642
    -0.01638
     -0.1001
    -0.03572
   -0.008545
    0.002842
    -0.01638
      0.0134
    0.004419
    0.003004
    -0.04079
    0.009962
     0.01532
    -0.01638
    -0.01366
     -0.0104
    0.005667
     0.01605
   0.0008774
    -0.01459
    -0.02959
     0.01517
   -0.002195
     0.01195
    -0.01684
    -0.01496
   -0.009852
       0.015
    0.003872
    0.009298
    -0.01638
     0.01599
    0.006775
    -0.01562
    0.002302
    -0.01638
   -0.008555
    -0.01306
     0.01252
     0.01452
    -0.01638
    -0.01638
   -0.000555
     0.00909
   -0.008564
    -0.01006
   -0.001824
   -0.006688
   -0.002499
     -0.1972
   -0.009574
     0.01486
    -0.01392
    -0.01638
    -0.01638
     0.01595
    -0.00809
     0.01254
     0.01589
   -0.008383
    -0.03631
   -0.009792
    0.006609
     -0.1717
      -0.011
    -0.01008
   -0.005547
   -0.005849
    -0.01498
    -0.01453
    -0.06191
    -0.05321
   -0.001406
    -0.01638
   -0.003533
     0.00184
   -0.007519
    0.004536
   -0.005696
    -0.03961
    0.009247
    -0.01638
   -0.008849
     0.01193
    0.002003
   0.0001368
    0.004771
    -0.00471
     0.01595
   -0.005198
   -0.001576
   -0.003864
    0.007736
   -0.003039
    0.001822
  -0.0004394
    -0.03771
     0.01592
     0.01208
    -0.01638
    0.001836
   -0.001146
    0.005077
    -0.08541
   -0.009054
    0.008543
    -0.01638
    -0.01235
    -0.01599
       0.011
    -0.01083
    0.002371
     0.01418
     0.01576
    -0.02787
    -0.01638
    -0.01478
     0.01351
    0.004348
    0.006324
   -0.007077
   -0.006026
     0.01553
     0.01567
  -0.0005125
    -0.02087
     0.01438
   -0.003837
    -0.08913
    0.007542
    -0.01638
     0.01077
    -0.01638
    -0.00444
    0.005601
    -0.01486
    -0.01313
    0.001972
    -0.01746
    -0.01026
      0.0133
    -0.01638
    -0.01507
    -0.01456
    -0.01302
   -0.002877
    0.003658
    -0.01592
   -0.002528
     -0.0131
     0.01607
    -0.01638
   -0.002944
    0.007722
    -0.01621
     -0.0153
     0.01599
    -0.01025
    -0.01574
    0.004378
    0.001012
    -0.01331
    -0.00972
      0.0111
    -0.01362
     0.01482
     0.01609
    -0.01638
    0.008924
     0.01107
    -0.04181
     -0.0115
     -0.0127
    -0.02244
     0.00465
    0.006906
        0.01
     0.01546
   -0.005359
    0.009948
    -0.01008
    -0.05143
     0.01515
    -0.01638
   -0.009915
    -0.01638
     0.01436
    -0.01212
   -0.006353
     0.00771
    0.004339
    -0.01638
     0.01059
    -0.01638
    0.009863
     0.01617
   -0.004521
    -0.05807
    0.004799
     0.01383
    -0.01329
      0.0142
     0.01617
     0.01489
    -0.02888
    -0.09785
     0.01499
     0.01362
     0.01164
    -0.01452
    0.007537
    0.007093
     0.01308
  -0.0007619
    -0.05329
    -0.02014
    0.005378
    -0.01549
     0.01079
    -0.01039
     0.01379
   -0.008251
     0.01323
   5.733e-05
    -0.01168
   -0.002371
    -0.02395
     0.01412
   -0.009967
     0.01615
    -0.01043
     0.01492
    -0.01397
     -0.0145
     -0.0919
     0.01615
    0.004649
    -0.01638
    -0.07612
    -0.01021
      -0.061
    -0.00156
    -0.01599
     0.01568
   0.0006328
   -0.003974
     0.01169
     0.01591
     0.01435
    -0.01638
      0.0155
    -0.01638
    0.009285
    0.009713
     0.01512
     0.01283
     -0.0123
   -0.008586
     -0.0142
    -0.01589
    -0.01517
    -0.01638
    -0.01638
    -0.01503
    0.001013
     0.01614
    -0.01355
   -0.004681
     0.01574
    0.005909
    -0.02239
   -0.005707
   -0.006746
   -0.002181
   -0.004462
    -0.03821
     0.01609
    -0.01247
    -0.04101
     0.01598
    -0.07528
    0.003505
    -0.01121
    -0.02567
     0.01582
    0.009014
    -0.05556
    -0.01534
    -0.01213
     0.01263
    0.004432
    0.006936
    -0.01545
    -0.01638
    -0.02329
    -0.01531
    -0.01464
    -0.01989
     0.01508
    -0.07233
    -0.01589
   -0.000368
    0.003288
   -0.006304
     0.01583
   -0.006379
    -0.01638
     0.01572
     0.01588
    0.009902
   -0.007832
    0.008326
     0.01613
    0.009702
    0.007883
   -0.002914
    0.008176
    -0.02346
    -0.01638
    0.009647
    -0.01638
     0.01293
    -0.01196
    -0.01515
    -0.02764
    -0.01089
     0.01414
    0.001258
    -0.00707
    -0.01336
    -0.01419
    -0.02898
    -0.02747
   -0.007044
    0.005753
    -0.01909
    -0.00608
   -0.003864
     0.01042
    -0.01638
    -0.01159
    0.004778
     0.01614
   -0.009324
    -0.01638
    -0.04807
   -0.000492
      0.0079
     0.01391
    0.002052
     0.01592
    -0.06402
    -0.01441
   -0.004526
    0.008362
    -0.01299
    -0.06784
    -0.06755
    -0.04572
     -0.0134
    0.008766
    0.005816
    -0.06104
    -0.01553
     -0.0256
     0.01501
    -0.01484
    0.005016
    -0.05595
    0.003547
    0.009241
    -0.01172
    0.001739
     0.01042
   -0.006439
   0.0006998
    -0.01476
    -0.01388
     0.01614
    -0.01584
    -0.03839
     0.01457
    -0.01638
    0.004316
    -0.01219
   -0.004398
   -0.002029
    -0.01394
     0.01469
    -0.01557
    -0.01202
     0.01438
    -0.01516
    -0.01482
    0.001747
   -0.007075
    -0.01109
    -0.01065
    -0.05946
     0.01606
   -0.005957
     0.01379
   -0.009849
   -0.006696
     0.01343
    -0.04058
    -0.05801
    0.008113
    -0.01638
    -0.06337
    0.005463
     0.01591
     -0.0387
    -0.01108
     0.01496
     0.01521
    0.008264
     0.01594
   -0.009545
     0.01161
   -0.008399
    -0.01292
    -0.02833
    -0.01638
     0.01616
    -0.06878
    -0.01067
   -0.004834
    -0.01598
   -0.001883
     0.01401
     0.01384
    0.003346
     0.01112
    0.002205
   -0.009858
    -0.04068
    -0.04629
    -0.01328
     0.01528
    -0.01341
    -0.01242
     0.01342
    -0.01638
     0.01217
    -0.01638
   -0.002231
   -0.008677
     0.01478
     0.01614
     -0.1159
    -0.01579
     0.01042
     -0.0126
     -0.0144
     0.01418
    0.004319
    -0.01638
    -0.04139
    -0.03088
    -0.01169
    -0.01381
     -0.0293
    -0.01719
   -0.006169
    -0.01067
    0.007588
     0.01278
    -0.01638
    -0.01587
   -0.002052
    0.007829
    -0.01638
    -0.01202
     0.01397
    -0.03547
    -0.01581
     0.00454
   -0.001177
     -0.1391
    -0.01821
     0.01164
    -0.01549
     0.01025
    -0.00634
    -0.01112
     0.01359
     -0.0139
     0.01326
    -0.01476
     0.01563
    -0.01256
    0.008419
   -0.008305
    0.004339
     0.01605
    -0.01638
    -0.01638
     0.01001
    0.005619
    -0.05824
    0.001961
    -0.01876
   -0.006784
     0.01543
   -0.009567
    -0.01509
    0.008902
    -0.00691
    -0.01638
      0.0145
     -0.1402
    -0.01304
    -0.01589
    0.007891
   0.0005881
    -0.01125
    0.003149
   -0.004324
    -0.01582
   -0.001576
    -0.01391
    0.004702
     0.01474
    0.008804
     0.01339
    -0.01588
    -0.02572
    0.006352
   -0.002057
    0.009173
    -0.01405
    0.001151
     0.01284
     0.01223
     -0.0082
    -0.01391
    -0.01638
     0.01351
       0.015
    -0.00992
     0.01594
     0.01616
     -0.0111
    -0.07331
   -0.004101
    0.003319
    -0.01289
     0.01609
   -0.003836
   -0.007118
    -0.01638
    -0.01638
    -0.01638
     0.01588
    0.004891
   -0.003738
     0.00544
    0.005472
    -0.01567
    -0.02005
   -0.006103
      0.0139
     0.01611
   -0.006872
    -0.01243
    -0.01302
     0.01438
     0.01395
    -0.01127
     0.01015
     0.01551
   -0.002042
    -0.01638
     -0.2003
    -0.01638
    -0.02135
    -0.01419
  -0.0009291
    -0.01416
     0.01613
    -0.02051
     0.01259
     0.01428
    0.002401
   -0.009279
   -0.001779
     0.01487
    -0.03969
    0.005594
    0.004533
     0.01043
     0.01002
   -0.009071
    0.008502
    0.002469
    -0.00927
    -0.01393
      0.0138
     0.01266
   -0.006747
   -0.006827
     0.01501
    -0.01164
  -5.861e-05
     0.01485
    -0.01638
    0.002131
    0.003199
   -0.006041
    0.005794
     0.01561
    -0.01638
     0.01454
     0.01227
     0.01546
     0.01596
    -0.02238
    -0.01638
   -0.009234
    -0.01638
    -0.01263
    -0.02584
    -0.01965
    -0.01638
     0.01224
    -0.02227
    -0.01079
    -0.00589
    0.009516
    -0.01202
    -0.03618
   -0.004154
   0.0002637
    -0.01638
     0.01603
    0.001644
    0.009171
    -0.08388
    -0.00431
    0.003093
    -0.01126
    -0.01638
    0.004319
    -0.04845
     0.01609
     0.01554
      -0.014
     0.01529
    0.007707
     0.01132
    -0.01638
    0.009362
   -0.006446
   -0.001237
   -0.008764
    -0.02226
    -0.07438
    -0.01638
     0.01436
   -0.003212
    0.001769
    -0.01638
    -0.03723
     0.01483
     0.01611
   -0.007531
   -0.002404
    -0.01376
     0.01551
   -0.001412
   0.0008384
   -0.004844
     0.01528
   -0.007096
    -0.01638
    -0.03294
     0.01173
    -0.01473
   -0.004181
    -0.01428
     0.01133
   -0.004759
    -0.01589
    0.001264
     0.01616
    -0.02316
    0.004552
    -0.09776
      0.0158
    0.001123
    -0.08804
    -0.01638
    0.008682
    -0.01521
   -0.007846
   0.0001432
    0.000614
    0.001209
    -0.02379
    -0.02008
   -0.003066
    -0.05135
     0.01602
    -0.01638
     -0.0125
    -0.02716
    -0.02812
    -0.01638
     0.01611
    -0.01638
    -0.01638
    -0.07627
   -0.001126
    -0.06032
    -0.01583
       0.016
   -0.002975
     -0.1488
     0.01584
    -0.02667
    0.009765
    -0.01638
    -0.01638
    -0.01502
     0.01377
   -0.009383
   0.0009609
     0.01269
     0.01609
     0.00477
     0.01555
   -0.006377
   -0.005783
    -0.01638
      0.0149
    -0.01573
     0.01396
     0.01189
    -0.01586
    -0.01339
   -0.008045
     0.01537
    -0.01638
   -0.004952
    -0.01487
    0.008409
    0.009093
    0.008562
    -0.01728
     0.01124
    -0.01638
   -0.008165
    -0.01513
     0.01377
   -0.006851
   -0.005235
     -0.0138
     0.01299
   -0.007072
    0.008744
    0.008617
    -0.04394
    -0.01638
    -0.01039
     0.01615
     0.01489
    0.005302
    -0.01503
    0.006319
    -0.08637
     -0.0162
   -0.000702
     0.01218
    -0.01638
   -0.003945
    -0.00137
    0.009252
    -0.01638
    -0.02736
    -0.01072
    -0.09913
    -0.01215
     0.01401
    -0.01589
      0.0152
     -0.0138
    -0.00716
    -0.02752
   -0.008887
    0.008236
    -0.01165
    -0.01543
    -0.01403
    0.008978
    -0.01284
     0.00948
    -0.01448
    -0.00751
    -0.01583
    -0.04413
   -0.003588
   -0.002154
    -0.01638
    -0.01356
   -0.002661
     0.01581
    -0.09704
    -0.01547
    0.009581
     0.01492
    -0.01573
    -0.01436
   -0.006426
    -0.01638
   -0.009151
   -0.005951
    -0.03794
    -0.01432
     0.01445
    -0.01638
    -0.01638
    -0.01638
     0.01604
    -0.01515
    -0.01365
    -0.01638
    0.007783
    -0.01528
   -0.009936
    0.007347
    0.004602
   -0.001944
   -0.001855
    0.009855
    -0.01334
    -0.01432
     0.01073
     0.01148
   -0.008701
    -0.01223
     0.01493
   -0.003368
    -0.03225
    -0.01386
   0.0002208
    -0.01243
    0.006239
   -0.008157
   -0.009557
    -0.01548
    -0.08382
     0.01209
     0.01423
     -0.0103
    0.005387
     0.01615
    0.008014
     0.01501
     0.01454
    -0.01476
    0.009996
    -0.00744
    0.003751
    -0.01587
    -0.01253
    -0.01638
   -0.000132
    -0.01563
    0.001216
    -0.01437
    -0.01638
    0.002295
    -0.01638
    -0.01638
    0.003867
    0.003827
    -0.01416
     0.01357
     0.01565
    -0.01638
     0.01379
    -0.01595
     0.00138
     0.01494
     -0.0148
   0.0009872
    -0.01585
     -0.0127
    -0.01638
    -0.01596
    -0.01462
    0.006995
   -0.009504
    -0.01638
    0.002369
    -0.01467
    -0.01638
    -0.01515
     0.01233
  -4.116e-05
    -0.01638
    -0.03644
    -0.01638
    -0.01638
    -0.01599
      0.0138
    -0.01062
    -0.01638
     0.01382
   -0.001871
     0.01578
  -0.0006214
    0.001785
   -0.002687
   -0.008179
    -0.01638
     -0.0306
     0.01559
     0.01516
     0.01072
      0.0121
   -0.005594
    -0.02095
    -0.06195
    0.004321
    0.002414
    -0.01484
   -0.008655
   -0.002832
   -0.008733
     -0.0296
     0.01365
    0.004485
    -0.01629
    0.005548
    -0.01534
      0.0101
     0.01397
    -0.01012
    0.001196
     0.00271
     0.00881
    -0.01343
    0.004984
    -0.02609
    -0.01391
     -0.0157
     -0.1122
    -0.01006
    -0.01638
    -0.01548
     0.01593
      0.0142
     0.01319
    -0.01035
     0.01483
    0.006033
    -0.01638
    0.001744
   -0.006922
    -0.06033
  -0.0007314
    0.007509
    0.007548
   -0.007409
    -0.01817
    0.007926
    -0.01563
      -0.029
    -0.02555
    -0.01118
   -0.007332
    -0.01638
    0.001633
    -0.01556
     0.01031
     0.01594
    -0.03097
    -0.06241
     0.01608
    -0.01638
    -0.01638
     0.01391
     0.01531
   -0.005567
     0.01548
   -0.006352
     0.01601
    -0.01305
   -0.004792
     0.01617
    0.002207
    -0.01211
    -0.01418
     0.01308
   -0.007399
    0.008712
    0.006726
     0.01472
   -0.001419
   -0.009598
     -0.0124
     0.01166
   -0.003684
    0.001183
   -0.006296
    0.009932
     0.01608
    -0.01638
    -0.01854
   -0.009354
    0.009323
    0.003097
   -0.008517
    0.004792
  -0.0007892
    0.002338
      0.0052
    -0.01638
     0.01103
    0.008413
     0.01559
     0.01593
    0.006599
     0.01218
     0.01616
    -0.01583
    -0.02981
    -0.01256
     0.01266
     -0.0077
    -0.01542
   -0.007781
      -0.177
    0.006342
    0.008221
      0.0161
    0.009536
    -0.01598
   -0.005673
    -0.01638
     0.01066
     0.01288
    -0.04225
    -0.01949
     0.01316
     0.01559
     0.01335
     0.01466
     0.01579
   -0.002594
    -0.01592
     0.01599
    -0.01638
    0.002812
     0.01126
  -0.0004563
     0.01608
     0.01272
    -0.00478
    -0.01421
     0.01575
    -0.01638
     0.01175
   2.828e-05
   2.935e-05
   -0.001276
    -0.01638
     0.01253
   -0.002316
    -0.01638
   -0.006975
    -0.01638
    -0.04164
     0.01423
    -0.01077
     -0.0293
   -0.004087
    -0.02829
    -0.01638
    0.003324
    -0.01221
    -0.01379
    -0.01132
    -0.01638
   -0.009188
    -0.02204
    -0.01638
    -0.01024
    -0.01149
    -0.01155
  -0.0006492
     0.01134
     0.01613
     0.01164
    -0.01638
    -0.01638
    0.001685
    -0.01638
     0.01612
   -0.005169
    -0.02383
    -0.01638
    0.009408
    0.001528
     0.01597
    -0.01638
    -0.01366
    -0.01638
   -0.006364
    -0.01188
    0.007563
    -0.07752
   -0.003979
    -0.01638
     -0.0138
    0.003684
     0.01233
     0.00314
      -0.062
    -0.01638
    -0.01638
    0.001871
    -0.01377
    -0.01638
    -0.01638
    -0.01451
     0.01529
    -0.01389
   -0.005499
    -0.01546
   -0.003421
   0.0005148
    -0.01027
      0.0141
    -0.01638
     0.01385
   -0.005396
    -0.01638
     0.01616
     -0.1041
    -0.01438
    0.005959
    0.008206
   1.638e-05
     -0.1877
     0.01616
    -0.01445
    -0.01294
    -0.03182
    0.000821
      0.0132
    -0.01638
    -0.01638
    -0.01451
    -0.01638
    -0.01096
   -0.008445
     0.01451
     -0.1305
   -0.007654
     0.00314
    0.003135
    -0.01297
    0.002148
    0.002329
     0.01216
    -0.04079
   -0.004089
   -0.007466
   -0.005193
     0.01448
     0.01586
     0.00554
    -0.01599
    -0.01517
   -0.004617
    -0.01638
     0.01516
     0.01585
     0.01037
    -0.05906
    0.003473
    0.002672
    0.007677
    -0.01474
    -0.01796
    0.007161
     0.01002
      0.0133
    -0.01465
    -0.01278
    -0.01638
    -0.03378
     -0.0156
     0.01567
    0.005312
    0.009623
    0.006314
     -0.0192
    0.002535
    -0.01223
    0.009586
    -0.01804
    -0.01518
    -0.01638
  -2.348e-05
      0.0103
    0.003611
    0.001484
     0.01492
   -0.002972
    -0.03063
     0.00306
    0.007403
     0.01494
   0.0002436
    -0.01638
   -0.008971
    -0.01292
   -0.003635
    -0.01599
    -0.01638
    -0.01446
    0.002588
  -0.0008197
   -0.002343
    0.006232
    0.008042
    -0.02326
    -0.01109
    0.007156
    -0.03851
    -0.01584
   0.0004354
    -0.00675
     0.01258
     -0.0138
   -0.006077
    -0.03387
    -0.01542
     -0.1376
     0.01428
      0.0159
    0.003358
    -0.01092
     0.01324
    -0.01638
     0.01609
    -0.01593
   -0.009645
    -0.03235
   -0.006861
    -0.02433
    -0.01105
     -0.0317
     -0.0102
   -0.008891
    -0.01229
     0.01189
    -0.02197
      0.0144
     0.01445
     0.01268
    -0.03167
     0.01608
     0.01394
    -0.01509
    0.006579
   -0.004993
     0.01285
    0.007994
     0.01601
    -0.01268
   -0.002334
   -0.002578
     0.01617
    0.001716
    -0.01567
    -0.01638
   -0.006108
    -0.01551
    -0.04248
    0.007436
    -0.01261
     0.01323
    0.009812
     0.01226
   0.0005521
     0.01509
    0.002534
    -0.07271
    -0.03271
    -0.01555
     0.01617
     0.01578
     0.01315
    -0.01563
    -0.00639
    0.007309
      0.0157
   -0.009572
    0.005897
    -0.06279
    -0.01356
    0.003444
   -0.007864
    -0.01638
    -0.01008
    -0.01483
   -0.003659
  -0.0005563
     0.01477
    -0.04498
    0.001561
     0.01592
   -0.007009
  -0.0002819
    0.002881
    -0.01638
     0.01208
    -0.01231
     0.01471
    0.001326
    -0.01468
